{"learner":{"attributes":{"scikit_learn":"{\"_estimator_type\": \"regressor\"}"},"feature_names":["carb_avg_7d","sleep_avg_3d","HbA1c","glucose_trend","BMI","trimester"],"feature_types":["float","float","float","float","float","int"],"gradient_booster":{"model":{"gbtree_model_param":{"num_parallel_tree":"1","num_trees":"50"},"iteration_indptr":[0,1,2,3,4,5,6,7,8,9,10,11,12,13,14,15,16,17,18,19,20,21,22,23,24,25,26,27,28,29,30,31,32,33,34,35,36,37,38,39,40,41,42,43,44,45,46,47,48,49,50],"tree_info":[0,0,0,0,0,0,0,0,0,0,0,0,0,0,0,0,0,0,0,0,0,0,0,0,0,0,0,0,0,0,0,0,0,0,0,0,0,0,0,0,0,0,0,0,0,0,0,0,0,0],"trees":[{"base_weights":[6.417533E-6,-1.9410229E1,1.8208836E1,-3.688693E1,-3.1048398E0,4.7370473E-1,3.481299E1,-4.438705E0,-2.6392903E0,-9.368767E-1,8.882708E-1,-6.6826624E-1,1.2295556E0,2.591433E0,4.3991466E0],"categories":[],"categories_nodes":[],"categories_segments":[],"categories_sizes":[],"default_left":[0,0,0,0,0,0,0,0,0,0,0,0,0,0,0],"id":0,"left_children":[1,3,5,7,9,11,13,-1,-1,-1,-1,-1,-1,-1,-1],"loss_changes":[3.541445E5,1.380932E5,1.5222803E5,1.7245812E4,1.9005678E4,2.1317145E4,2.06675E4,0E0,0E0,0E0,0E0,0E0,0E0,0E0,0E0],"parents":[2147483647,0,0,1,1,2,2,3,3,4,4,5,5,6,6],"right_children":[2,4,6,8,10,12,14,-1,-1,-1,-1,-1,-1,-1,-1],"split_conditions":[2.1596085E2,6.6207924E0,6.7734303E0,1.4476064E2,8.199464E0,3.2997064E2,3.051525E2,-4.438705E0,-2.6392903E0,-9.368767E-1,8.882708E-1,-6.6826624E-1,1.2295556E0,2.591433E0,4.3991466E0],"split_indices":[0,2,2,0,2,0,0,0,0,0,0,0,0,0,0],"split_type":[0,0,0,0,0,0,0,0,0,0,0,0,0,0,0],"sum_hessian":[1E3,4.84E2,5.16E2,2.33E2,2.51E2,2.5E2,2.66E2,1.34E2,9.9E1,1.65E2,8.6E1,1.56E2,9.4E1,1.37E2,1.29E2],"tree_param":{"num_deleted":"0","num_feature":"6","num_nodes":"15","size_leaf_vector":"1"}},{"base_weights":[4.3095028E-4,-1.74839E1,1.640256E1,-3.4228397E1,-3.5693393E0,2.3352058E0,3.3809174E1,-4.1242156E0,-2.4388225E0,-9.1436005E-1,8.004643E-1,-5.772338E-1,1.1379408E0,2.6473613E0,4.3154025E0],"categories":[],"categories_nodes":[],"categories_segments":[],"categories_sizes":[],"default_left":[0,0,0,0,0,0,0,0,0,0,0,0,0,0,0],"id":1,"left_children":[1,3,5,7,9,11,13,-1,-1,-1,-1,-1,-1,-1,-1],"loss_changes":[2.873538E5,1.1287911E5,1.2651625E5,1.4177828E4,1.7234553E4,2.1110322E4,1.4692531E4,0E0,0E0,0E0,0E0,0E0,0E0,0E0,0E0],"parents":[2147483647,0,0,1,1,2,2,3,3,4,4,5,5,6,6],"right_children":[2,4,6,8,10,12,14,-1,-1,-1,-1,-1,-1,-1,-1],"split_conditions":[2.1596085E2,6.508888E0,7.0742188E0,1.4476064E2,8.199464E0,1.9751427E0,3.1656686E2,-4.1242156E0,-2.4388225E0,-9.1436005E-1,8.004643E-1,-5.772338E-1,1.1379408E0,2.6473613E0,4.3154025E0],"split_indices":[0,2,2,0,2,3,0,0,0,0,0,0,0,0,0],"split_type":[0,0,0,0,0,0,0,0,0,0,0,0,0,0,0],"sum_hessian":[1E3,4.84E2,5.16E2,2.19E2,2.65E2,2.86E2,2.3E2,1.26E2,9.3E1,1.79E2,8.6E1,1.51E2,1.35E2,1.31E2,9.9E1],"tree_param":{"num_deleted":"0","num_feature":"6","num_nodes":"15","size_leaf_vector":"1"}},{"base_weights":[1.2387362E-3,-1.4581844E1,1.5987713E1,-2.825737E1,-3.7274727E-1,3.3085814E0,3.1482145E1,-3.6731045E0,-2.1195896E0,-9.715819E-1,7.5715256E-1,-3.1804657E-1,1.3165144E0,2.4282236E0,3.8933182E0],"categories":[],"categories_nodes":[],"categories_segments":[],"categories_sizes":[],"default_left":[0,0,0,0,0,0,0,0,0,0,0,0,0,0,0],"id":2,"left_children":[1,3,5,7,9,11,13,-1,-1,-1,-1,-1,-1,-1,-1],"loss_changes":[2.3359834E5,1.01811516E5,9.380178E4,1.5197828E4,1.9223332E4,1.6927229E4,1.05886875E4,0E0,0E0,0E0,0E0,0E0,0E0,0E0,0E0],"parents":[2147483647,0,0,1,1,2,2,3,3,4,4,5,5,6,6],"right_children":[2,4,6,8,10,12,14,-1,-1,-1,-1,-1,-1,-1,-1],"split_conditions":[2.3159332E2,6.723956E0,7.0742188E0,1.286117E2,1.7355815E0,3.568907E0,8.119967E0,-3.6731045E0,-2.1195896E0,-9.715819E-1,7.5715256E-1,-3.1804657E-1,1.3165144E0,2.4282236E0,3.8933182E0],"split_indices":[0,2,2,0,3,3,2,0,0,0,0,0,0,0,0],"split_type":[0,0,0,0,0,0,0,0,0,0,0,0,0,0,0],"sum_hessian":[1E3,5.23E2,4.77E2,2.66E2,2.57E2,2.63E2,2.14E2,1.19E2,1.47E2,1.18E2,1.39E2,1.59E2,1.04E2,1.11E2,1.03E2],"tree_param":{"num_deleted":"0","num_feature":"6","num_nodes":"15","size_leaf_vector":"1"}},{"base_weights":[2.4268334E-3,-1.4264177E1,1.3385986E1,-2.398628E1,1.9110234E0,1.22789055E-1,2.580425E1,-3.1167803E0,-1.5173825E0,-4.4554433E-1,1.3000063E0,-7.67198E-1,8.6960125E-1,1.9325043E0,3.4463308E0],"categories":[],"categories_nodes":[],"categories_segments":[],"categories_sizes":[],"default_left":[0,0,0,0,0,0,0,0,0,0,0,0,0,0,0],"id":3,"left_children":[1,3,5,7,9,11,13,-1,-1,-1,-1,-1,-1,-1,-1],"loss_changes":[1.9131983E5,7.631548E4,8.514977E4,1.8702969E4,1.2977353E4,1.6840117E4,1.4313719E4,0E0,0E0,0E0,0E0,0E0,0E0,0E0,0E0],"parents":[2147483647,0,0,1,1,2,2,3,3,4,4,5,5,6,6],"right_children":[2,4,6,8,10,12,14,-1,-1,-1,-1,-1,-1,-1,-1],"split_conditions":[2.1596085E2,7.3115273E0,6.7734303E0,6.044253E0,1.4530757E2,3.1607974E2,8.111635E0,-3.1167803E0,-1.5173825E0,-4.4554433E-1,1.3000063E0,-7.67198E-1,8.6960125E-1,1.9325043E0,3.4463308E0],"split_indices":[0,2,2,2,0,0,2,0,0,0,0,0,0,0,0],"split_type":[0,0,0,0,0,0,0,0,0,0,0,0,0,0,0],"sum_hessian":[1E3,4.84E2,5.16E2,3.02E2,1.82E2,2.5E2,2.66E2,1.65E2,1.37E2,1.16E2,6.6E1,1.31E2,1.19E2,1.54E2,1.12E2],"tree_param":{"num_deleted":"0","num_feature":"6","num_nodes":"15","size_leaf_vector":"1"}},{"base_weights":[3.8814184E-3,-1.2546585E1,1.2355521E1,-2.1424143E1,2.4122577E0,-1.7495399E0,2.2239704E1,-2.9118524E0,-1.4392675E0,-3.620524E-1,1.1800269E0,-7.5975364E-1,7.400376E-1,1.5811205E0,3.0838609E0],"categories":[],"categories_nodes":[],"categories_segments":[],"categories_sizes":[],"default_left":[0,0,0,0,0,0,0,0,0,0,0,0,0,0,0],"id":4,"left_children":[1,3,5,7,9,11,13,-1,-1,-1,-1,-1,-1,-1,-1],"loss_changes":[1.5532888E5,6.605229E4,7.044449E4,1.6460969E4,1.0576985E4,1.1239538E4,1.5929984E4,0E0,0E0,0E0,0E0,0E0,0E0,0E0,0E0],"parents":[2147483647,0,0,1,1,2,2,3,3,4,4,5,5,6,6],"right_children":[2,4,6,8,10,12,14,-1,-1,-1,-1,-1,-1,-1,-1],"split_conditions":[2.230471E2,7.339148E0,6.4237037E0,2.5227695E0,1.4530757E2,3.2997064E2,3.2143466E2,-2.9118524E0,-1.4392675E0,-3.620524E-1,1.1800269E0,-7.5975364E-1,7.400376E-1,1.5811205E0,3.0838609E0],"split_indices":[0,2,2,3,0,0,0,0,0,0,0,0,0,0,0],"split_type":[0,0,0,0,0,0,0,0,0,0,0,0,0,0,0],"sum_hessian":[1E3,4.96E2,5.04E2,3.11E2,1.85E2,2.08E2,2.96E2,1.47E2,1.64E2,1.13E2,7.2E1,1.27E2,8.1E1,1.71E2,1.25E2],"tree_param":{"num_deleted":"0","num_feature":"6","num_nodes":"15","size_leaf_vector":"1"}},{"base_weights":[4.6041757E-3,-1.3275894E1,9.549242E0,-2.5720207E1,-3.7959917E0,4.3944146E-2,2.1606375E1,-3.3426425E0,-2.08979E0,-1.144925E0,2.3896828E-1,-5.4401636E-1,1.0338287E0,1.3866084E0,2.7584064E0],"categories":[],"categories_nodes":[],"categories_segments":[],"categories_sizes":[],"default_left":[0,0,0,0,0,0,0,0,0,0,0,0,0,0,0],"id":5,"left_children":[1,3,5,7,9,11,13,-1,-1,-1,-1,-1,-1,-1,-1],"loss_changes":[1.2701107E5,4.933217E4,6.6814734E4,6.0277344E3,1.1341756E4,1.8517121E4,1.1508656E4,0E0,0E0,0E0,0E0,0E0,0E0,0E0,0E0],"parents":[2147483647,0,0,1,1,2,2,3,3,4,4,5,5,6,6],"right_children":[2,4,6,8,10,12,14,-1,-1,-1,-1,-1,-1,-1,-1],"split_conditions":[1.8935904E2,6.4237037E0,7.0742188E0,8.0983776E-1,1.6381828E0,4.4842324E0,1.1222754E0,-3.3426425E0,-2.08979E0,-1.144925E0,2.3896828E-1,-5.4401636E-1,1.0338287E0,1.3866084E0,2.7584064E0],"split_indices":[0,2,2,3,3,3,3,0,0,0,0,0,0,0,0],"split_type":[0,0,0,0,0,0,0,0,0,0,0,0,0,0,0],"sum_hessian":[1E3,4.18E2,5.82E2,1.8E2,2.38E2,3.26E2,2.56E2,6.7E1,1.13E2,1.06E2,1.32E2,2.13E2,1.13E2,1.13E2,1.43E2],"tree_param":{"num_deleted":"0","num_feature":"6","num_nodes":"15","size_leaf_vector":"1"}},{"base_weights":[2.4415283E-3,-9.661787E0,1.1118373E1,-2.3686445E1,-2.563467E0,-4.3619475E-1,1.9288584E1,-3.3079717E0,-2.0020108E0,-1.0001417E0,3.3922997E-1,-4.2263657E-1,9.995163E-1,1.382023E0,2.7515051E0],"categories":[],"categories_nodes":[],"categories_segments":[],"categories_sizes":[],"default_left":[0,0,0,0,0,0,0,0,0,0,0,0,0,0,0],"id":6,"left_children":[1,3,5,7,9,11,13,-1,-1,-1,-1,-1,-1,-1,-1],"loss_changes":[1.0764175E5,5.3298887E4,4.4000332E4,5.536742E3,1.58485625E4,7.7123486E3,1.1900711E4,0E0,0E0,0E0,0E0,0E0,0E0,0E0,0E0],"parents":[2147483647,0,0,1,1,2,2,3,3,4,4,5,5,6,6],"right_children":[2,4,6,8,10,12,14,-1,-1,-1,-1,-1,-1,-1,-1],"split_conditions":[2.3399156E2,6.0564485E0,6.4237037E0,-5.4063815E-1,1.6381828E0,5.137344E0,8.069143E0,-3.3079717E0,-2.0020108E0,-1.0001417E0,3.3922997E-1,-4.2263657E-1,9.995163E-1,1.382023E0,2.7515051E0],"split_indices":[0,2,2,3,3,3,2,0,0,0,0,0,0,0,0],"split_type":[0,0,0,0,0,0,0,0,0,0,0,0,0,0,0],"sum_hessian":[1E3,5.35E2,4.65E2,1.79E2,3.56E2,1.93E2,2.72E2,4.8E1,1.31E2,1.58E2,1.98E2,1.42E2,5.1E1,1.65E2,1.07E2],"tree_param":{"num_deleted":"0","num_feature":"6","num_nodes":"15","size_leaf_vector":"1"}},{"base_weights":[9.375543E-4,-6.554246E0,1.3593892E1,-1.6275654E1,2.1264331E0,4.9535292E-1,2.0080805E1,-2.365909E0,-1.0729876E0,-7.2415555E-1,7.2454333E-1,-1.3492997E0,3.410554E-1,1.5979258E0,3.0143094E0],"categories":[],"categories_nodes":[],"categories_segments":[],"categories_sizes":[],"default_left":[0,0,0,0,0,0,0,0,0,0,0,0,0,0,0],"id":7,"left_children":[1,3,5,7,9,11,13,-1,-1,-1,-1,-1,-1,-1,-1],"loss_changes":[8.928251E4,5.708118E4,2.7689973E4,1.2808195E4,1.7220264E4,4.490913E3,8.515398E3,0E0,0E0,0E0,0E0,0E0,0E0,0E0,0E0],"parents":[2147483647,0,0,1,1,2,2,3,3,4,4,5,5,6,6],"right_children":[2,4,6,8,10,12,14,-1,-1,-1,-1,-1,-1,-1,-1],"split_conditions":[2.805428E2,6.639957E0,5.963828E0,1.4476064E2,1.2431869E2,-2.4245913E0,8.177076E0,-2.365909E0,-1.0729876E0,-7.2415555E-1,7.2454333E-1,-1.3492997E0,3.410554E-1,1.5979258E0,3.0143094E0],"split_indices":[0,2,2,0,0,3,2,0,0,0,0,0,0,0,0],"split_type":[0,0,0,0,0,0,0,0,0,0,0,0,0,0,0],"sum_hessian":[1E3,6.75E2,3.25E2,3.18E2,3.57E2,1.08E2,2.17E2,1.35E2,1.83E2,1.26E2,2.31E2,1.8E1,9E1,1.56E2,6.1E1],"tree_param":{"num_deleted":"0","num_feature":"6","num_nodes":"15","size_leaf_vector":"1"}},{"base_weights":[1.0057996E-3,-1.1448864E1,6.421492E0,-1.778421E1,-8.8341E-1,1.7367835E-1,1.7921124E1,-2.920309E0,-1.5081073E0,-7.1265334E-1,4.9324995E-1,-7.305493E-1,5.559198E-1,1.4509788E0,2.851816E0],"categories":[],"categories_nodes":[],"categories_segments":[],"categories_sizes":[],"default_left":[0,0,0,0,0,0,0,0,0,0,0,0,0,0,0],"id":8,"left_children":[1,3,5,7,9,11,13,-1,-1,-1,-1,-1,-1,-1,-1],"loss_changes":[7.3660766E4,2.4081176E4,4.612302E4,6.504625E3,4.973236E3,1.683705E4,7.756117E3,0E0,0E0,0E0,0E0,0E0,0E0,0E0,0E0],"parents":[2147483647,0,0,1,1,2,2,3,3,4,4,5,5,6,6],"right_children":[2,4,6,8,10,12,14,-1,-1,-1,-1,-1,-1,-1,-1],"split_conditions":[1.7099359E2,7.339148E0,7.4634323E0,4.974632E0,1.7355815E0,5.7630744E0,3.494112E2,-2.920309E0,-1.5081073E0,-7.1265334E-1,4.9324995E-1,-7.305493E-1,5.559198E-1,1.4509788E0,2.851816E0],"split_indices":[0,2,2,2,3,2,0,0,0,0,0,0,0,0,0],"split_type":[0,0,0,0,0,0,0,0,0,0,0,0,0,0,0],"sum_hessian":[1E3,3.59E2,6.41E2,2.24E2,1.35E2,4.16E2,2.25E2,4.1E1,1.83E2,6.5E1,7E1,1.74E2,2.42E2,1.72E2,5.3E1],"tree_param":{"num_deleted":"0","num_feature":"6","num_nodes":"15","size_leaf_vector":"1"}},{"base_weights":[3.8308554E-4,-5.5383873E0,1.1485685E1,-1.0832392E1,5.483879E0,9.1256464E-1,1.6719559E1,-1.557798E0,-3.5762674E-1,-4.229622E-1,9.6742725E-1,-9.026241E-1,4.4596362E-1,9.2066395E-1,2.0757062E0],"categories":[],"categories_nodes":[],"categories_segments":[],"categories_sizes":[],"default_left":[0,0,0,0,0,0,0,0,0,0,0,0,0,0,0],"id":9,"left_children":[1,3,5,7,9,11,13,-1,-1,-1,-1,-1,-1,-1,-1],"loss_changes":[6.374168E4,3.9505305E4,1.8025055E4,1.5680895E4,8.995666E3,3.8829014E3,6.421578E3,0E0,0E0,0E0,0E0,0E0,0E0,0E0,0E0],"parents":[2147483647,0,0,1,1,2,2,3,3,4,4,5,5,6,6],"right_children":[2,4,6,8,10,12,14,-1,-1,-1,-1,-1,-1,-1,-1],"split_conditions":[2.805428E2,7.54894E0,5.963828E0,4.0367417E0,1.09322464E2,-1.0512898E0,-5.4063815E-1,-1.557798E0,-3.5762674E-1,-4.229622E-1,9.6742725E-1,-9.026241E-1,4.4596362E-1,9.2066395E-1,2.0757062E0],"split_indices":[0,2,2,3,0,3,3,0,0,0,0,0,0,0,0],"split_type":[0,0,0,0,0,0,0,0,0,0,0,0,0,0,0],"sum_hessian":[1E3,6.75E2,3.25E2,4.56E2,2.19E2,1.08E2,2.17E2,2.75E2,1.81E2,6.6E1,1.53E2,2.8E1,8E1,7.7E1,1.4E2],"tree_param":{"num_deleted":"0","num_feature":"6","num_nodes":"15","size_leaf_vector":"1"}},{"base_weights":[1.5123426E-3,-9.645582E0,5.4110956E0,-1.7439144E1,-3.3937633E0,-6.071146E0,9.693107E0,-2.5403125E0,-1.4481782E0,-9.453966E-1,1.9122818E-1,-1.0865325E0,2.4135266E-1,6.0843635E-1,1.827862E0],"categories":[],"categories_nodes":[],"categories_segments":[],"categories_sizes":[],"default_left":[0,0,0,0,0,0,0,0,0,0,0,0,0,0,0],"id":10,"left_children":[1,3,5,7,9,11,13,-1,-1,-1,-1,-1,-1,-1,-1],"loss_changes":[5.2291137E4,1.7481438E4,3.162412E4,3.4005E3,6.4813765E3,7.144702E3,1.4388789E4,0E0,0E0,0E0,0E0,0E0,0E0,0E0,0E0],"parents":[2147483647,0,0,1,1,2,2,3,3,4,4,5,5,6,6],"right_children":[2,4,6,8,10,12,14,-1,-1,-1,-1,-1,-1,-1,-1],"split_conditions":[1.7099359E2,6.508888E0,5.7630744E0,4.974632E0,1.7355815E0,4.1247926E0,8.111635E0,-2.5403125E0,-1.4481782E0,-9.453966E-1,1.9122818E-1,-1.0865325E0,2.4135266E-1,6.0843635E-1,1.827862E0],"split_indices":[0,2,2,2,3,3,2,0,0,0,0,0,0,0,0],"split_type":[0,0,0,0,0,0,0,0,0,0,0,0,0,0,0],"sum_hessian":[1E3,3.59E2,6.41E2,1.59E2,2E2,1.74E2,4.67E2,4.1E1,1.18E2,9.3E1,1.07E2,1.11E2,6.3E1,3.3E2,1.37E2],"tree_param":{"num_deleted":"0","num_feature":"6","num_nodes":"15","size_leaf_vector":"1"}},{"base_weights":[-1.7833881E-3,-4.4634647E0,1.0488396E1,-1.3203314E1,3.8229108E-2,-1.0364627E0,1.395036E1,-1.7204789E0,-6.736433E-1,-8.591405E-1,3.7440896E-1,-4.355259E-1,8.10111E-1,7.560205E-1,1.8391135E0],"categories":[],"categories_nodes":[],"categories_segments":[],"categories_sizes":[],"default_left":[0,0,0,0,0,0,0,0,0,0,0,0,0,0,0],"id":11,"left_children":[1,3,5,7,9,11,13,-1,-1,-1,-1,-1,-1,-1,-1],"loss_changes":[4.6897453E4,2.7659426E4,1.1944152E4,6.0687227E3,1.4902969E4,2.1580845E3,6.3877266E3,0E0,0E0,0E0,0E0,0E0,0E0,0E0,0E0],"parents":[2147483647,0,0,1,1,2,2,3,3,4,4,5,5,6,6],"right_children":[2,4,6,8,10,12,14,-1,-1,-1,-1,-1,-1,-1,-1],"split_conditions":[2.9216333E2,6.0564485E0,5.654385E0,4.0367417E0,-8.706768E-1,3.728748E2,1.06173344E-1,-1.7204789E0,-6.736433E-1,-8.591405E-1,3.7440896E-1,-4.355259E-1,8.10111E-1,7.560205E-1,1.8391135E0],"split_indices":[0,2,2,3,3,0,3,0,0,0,0,0,0,0,0],"split_type":[0,0,0,0,0,0,0,0,0,0,0,0,0,0,0],"sum_hessian":[1E3,7.02E2,2.98E2,2.38E2,4.64E2,6.9E1,2.29E2,1.46E2,9.2E1,1.39E2,3.25E2,5.1E1,1.8E1,9.5E1,1.34E2],"tree_param":{"num_deleted":"0","num_feature":"6","num_nodes":"15","size_leaf_vector":"1"}},{"base_weights":[-1.5126322E-3,-5.248263E0,7.3893456E0,-1.0164018E1,3.1576242E0,4.3263817E0,1.7417791E1,-1.5918782E0,-6.1679566E-1,3.9712843E-2,1.3700029E0,1.043088E-1,1.1753403E0,1.2939024E0,2.4981918E0],"categories":[],"categories_nodes":[],"categories_segments":[],"categories_sizes":[],"default_left":[0,0,0,0,0,0,0,0,0,0,0,0,0,0,0],"id":12,"left_children":[1,3,5,7,9,11,13,-1,-1,-1,-1,-1,-1,-1,-1],"loss_changes":[3.8855543E4,2.424636E4,1.2702818E4,8.41048E3,6.309751E3,7.790969E3,2.9629219E3,0E0,0E0,0E0,0E0,0E0,0E0,0E0,0E0],"parents":[2147483647,0,0,1,1,2,2,3,3,4,4,5,5,6,6],"right_children":[2,4,6,8,10,12,14,-1,-1,-1,-1,-1,-1,-1,-1],"split_conditions":[2.5191637E2,7.382142E0,8.011644E0,1.3500272E0,8.667873E0,5.0905447E0,3.747862E0,-1.5918782E0,-6.1679566E-1,3.9712843E-2,1.3700029E0,1.043088E-1,1.1753403E0,1.2939024E0,2.4981918E0],"split_indices":[0,2,2,3,2,3,3,0,0,0,0,0,0,0,0],"split_type":[0,0,0,0,0,0,0,0,0,0,0,0,0,0,0],"sum_hessian":[1E3,5.85E2,4.15E2,3.69E2,2.16E2,3.19E2,9.6E1,1.5E2,2.19E2,1.72E2,4.4E1,2.22E2,9.7E1,6.2E1,3.4E1],"tree_param":{"num_deleted":"0","num_feature":"6","num_nodes":"15","size_leaf_vector":"1"}},{"base_weights":[2.904124E-3,-8.149199E0,4.1341157E0,-1.2676351E1,-9.33401E-1,1.02921024E-1,1.180878E1,-1.8502533E0,-9.3643063E-1,-3.9401114E-1,6.5288144E-1,-3.2430086E-1,6.5919864E-1,8.827967E-1,1.9193786E0],"categories":[],"categories_nodes":[],"categories_segments":[],"categories_sizes":[],"default_left":[0,0,0,0,0,0,0,0,0,0,0,0,0,0,0],"id":13,"left_children":[1,3,5,7,9,11,13,-1,-1,-1,-1,-1,-1,-1,-1],"loss_changes":[3.3745434E4,1.0996951E4,2.0572598E4,3.821125E3,2.9649346E3,9.509502E3,4.8716113E3,0E0,0E0,0E0,0E0,0E0,0E0,0E0,0E0],"parents":[2147483647,0,0,1,1,2,2,3,3,4,4,5,5,6,6],"right_children":[2,4,6,8,10,12,14,-1,-1,-1,-1,-1,-1,-1,-1],"split_conditions":[1.6303476E2,7.339148E0,7.4634323E0,5.267338E-1,5.610955E0,4.8276057E0,5.3294744E0,-1.8502533E0,-9.3643063E-1,-3.9401114E-1,6.5288144E-1,-3.2430086E-1,6.5919864E-1,8.827967E-1,1.9193786E0],"split_indices":[0,2,2,3,3,3,3,0,0,0,0,0,0,0,0],"split_type":[0,0,0,0,0,0,0,0,0,0,0,0,0,0,0],"sum_hessian":[1E3,3.36E2,6.64E2,2.06E2,1.3E2,4.36E2,2.28E2,7.3E1,1.33E2,9.3E1,3.7E1,2.88E2,1.48E2,1.64E2,6.4E1],"tree_param":{"num_deleted":"0","num_feature":"6","num_nodes":"15","size_leaf_vector":"1"}},{"base_weights":[3.2217233E-3,-3.4572287E0,8.458126E0,-1.0686895E1,1.5727289E-1,-8.927592E-1,1.12590275E1,-1.7522868E0,-8.164878E-1,-6.751378E-1,3.1533226E-1,-1.0126628E0,2.1431737E-1,1.3573565E-1,1.3470018E0],"categories":[],"categories_nodes":[],"categories_segments":[],"categories_sizes":[],"default_left":[0,0,0,0,0,0,0,0,0,0,0,0,0,0,0],"id":14,"left_children":[1,3,5,7,9,11,13,-1,-1,-1,-1,-1,-1,-1,-1],"loss_changes":[2.9316275E4,1.858128E4,7.6316074E3,3.942912E3,9.853154E3,1.9279746E3,4.8856387E3,0E0,0E0,0E0,0E0,0E0,0E0,0E0,0E0],"parents":[2147483647,0,0,1,1,2,2,3,3,4,4,5,5,6,6],"right_children":[2,4,6,8,10,12,14,-1,-1,-1,-1,-1,-1,-1,-1],"split_conditions":[2.939555E2,6.044253E0,5.654385E0,-6.88075E-1,-8.706768E-1,-1.0512898E0,-2.4245913E0,-1.7522868E0,-8.164878E-1,-6.751378E-1,3.1533226E-1,-1.0126628E0,2.1431737E-1,1.3573565E-1,1.3470018E0],"split_indices":[0,2,2,3,3,3,3,0,0,0,0,0,0,0,0],"split_type":[0,0,0,0,0,0,0,0,0,0,0,0,0,0,0],"sum_hessian":[1E3,7.1E2,2.9E2,2.36E2,4.74E2,6.7E1,2.23E2,6.2E1,1.74E2,1.43E2,3.31E2,1.6E1,5.1E1,4.1E1,1.82E2],"tree_param":{"num_deleted":"0","num_feature":"6","num_nodes":"15","size_leaf_vector":"1"}},{"base_weights":[6.549237E-4,-7.8812475E0,3.1490116E0,-1.2010111E1,-1.4537833E0,-1.0605222E0,8.541665E0,-1.8382221E0,-9.1434544E-1,-4.298465E-1,6.2095183E-1,-3.7595138E-1,5.1868236E-1,1.23781264E-1,1.0868787E0],"categories":[],"categories_nodes":[],"categories_segments":[],"categories_sizes":[],"default_left":[0,0,0,0,0,0,0,0,0,0,0,0,0,0,0],"id":15,"left_children":[1,3,5,7,9,11,13,-1,-1,-1,-1,-1,-1,-1,-1],"loss_changes":[2.4864674E4,7.5724414E3,1.6262658E4,3.0103203E3,2.4900518E3,6.8146978E3,5.32359E3,0E0,0E0,0E0,0E0,0E0,0E0,0E0,0E0],"parents":[2147483647,0,0,1,1,2,2,3,3,4,4,5,5,6,6],"right_children":[2,4,6,8,10,12,14,-1,-1,-1,-1,-1,-1,-1,-1],"split_conditions":[1.4476064E2,7.339148E0,7.0138907E0,5.329012E0,5.610955E0,3.2143466E2,-1.4278002E0,-1.8382221E0,-9.1434544E-1,-4.298465E-1,6.2095183E-1,-3.7595138E-1,5.1868236E-1,1.23781264E-1,1.0868787E0],"split_indices":[0,2,2,2,3,0,3,0,0,0,0,0,0,0,0],"split_type":[0,0,0,0,0,0,0,0,0,0,0,0,0,0,0],"sum_hessian":[1E3,2.85E2,7.15E2,1.73E2,1.12E2,4.02E2,3.13E2,5.2E1,1.21E2,8.2E1,3E1,2.81E2,1.21E2,7.6E1,2.37E2],"tree_param":{"num_deleted":"0","num_feature":"6","num_nodes":"15","size_leaf_vector":"1"}},{"base_weights":[-6.188727E-4,-3.8117633E0,5.3679657E0,-7.0171E0,2.7515237E0,-4.7454038E-1,8.365304E0,-1.37879E0,-4.636081E-1,-4.6265522E-1,5.505329E-1,-8.474615E-1,2.636892E-1,5.10652E-1,1.3928887E0],"categories":[],"categories_nodes":[],"categories_segments":[],"categories_sizes":[],"default_left":[0,0,0,0,0,0,0,0,0,0,0,0,0,0,0],"id":16,"left_children":[1,3,5,7,9,11,13,-1,-1,-1,-1,-1,-1,-1,-1],"loss_changes":[2.0501375E4,1.2347309E4,7.288948E3,6.287912E3,3.9468027E3,3.556967E3,4.9147617E3,0E0,0E0,0E0,0E0,0E0,0E0,0E0,0E0],"parents":[2147483647,0,0,1,1,2,2,3,3,4,4,5,5,6,6],"right_children":[2,4,6,8,10,12,14,-1,-1,-1,-1,-1,-1,-1,-1],"split_conditions":[2.5191637E2,7.54894E0,5.963828E0,5.195069E0,9.788652E1,-1.0512898E0,3.494112E2,-1.37879E0,-4.636081E-1,-4.6265522E-1,5.505329E-1,-8.474615E-1,2.636892E-1,5.10652E-1,1.3928887E0],"split_indices":[0,2,2,2,0,3,0,0,0,0,0,0,0,0,0],"split_type":[0,0,0,0,0,0,0,0,0,0,0,0,0,0,0],"sum_hessian":[1E3,5.85E2,4.15E2,3.93E2,1.92E2,1.41E2,2.74E2,1.01E2,2.92E2,5.2E1,1.4E2,3.9E1,1.02E2,1.74E2,1E2],"tree_param":{"num_deleted":"0","num_feature":"6","num_nodes":"15","size_leaf_vector":"1"}},{"base_weights":[-9.913793E-4,-7.501433E0,2.400337E0,-1.0820045E1,-9.737449E-1,-6.2652655E0,4.3190713E0,-1.4906943E0,-7.8238124E-1,-1.518509E0,1.1810297E-1,-1.3938239E0,-3.721015E-1,2.5874743E-1,1.218092E0],"categories":[],"categories_nodes":[],"categories_segments":[],"categories_sizes":[],"default_left":[0,0,0,0,0,0,0,0,0,0,0,0,0,0,0],"id":17,"left_children":[1,3,5,7,9,11,13,-1,-1,-1,-1,-1,-1,-1,-1],"loss_changes":[1.804704E4,5.25354E3,1.2646945E4,1.8548633E3,2.5595806E3,2.6421665E3,8.436111E3,0E0,0E0,0E0,0E0,0E0,0E0,0E0,0E0],"parents":[2147483647,0,0,1,1,2,2,3,3,4,4,5,5,6,6],"right_children":[2,4,6,8,10,12,14,-1,-1,-1,-1,-1,-1,-1,-1],"split_conditions":[1.286117E2,7.681394E0,5.329012E0,8.0983776E-1,-2.6946344E0,-6.88075E-1,8.362537E0,-1.4906943E0,-7.8238124E-1,-1.518509E0,1.1810297E-1,-1.3938239E0,-3.721015E-1,2.5874743E-1,1.218092E0],"split_indices":[0,2,2,3,3,3,2,0,0,0,0,0,0,0,0],"split_type":[0,0,0,0,0,0,0,0,0,0,0,0,0,0,0],"sum_hessian":[1E3,2.42E2,7.58E2,1.6E2,8.2E1,1.37E2,6.21E2,6.6E1,9.4E1,1E1,7.2E1,3.3E1,1.04E2,5.1E2,1.11E2],"tree_param":{"num_deleted":"0","num_feature":"6","num_nodes":"15","size_leaf_vector":"1"}},{"base_weights":[-4.84917E-3,-1.868788E0,8.623749E0,-9.894273E0,-8.257842E-2,6.8395376E0,1.8791464E1,-1.7257553E0,-7.3305655E-1,-2.6191914E-1,5.705241E-1,-4.127811E-1,8.2408077E-1,1.2725364E0,2.3878691E0],"categories":[],"categories_nodes":[],"categories_segments":[],"categories_sizes":[],"default_left":[0,0,0,0,0,0,0,0,0,0,0,0,0,0,0],"id":18,"left_children":[1,3,5,7,9,11,13,-1,-1,-1,-1,-1,-1,-1,-1],"loss_changes":[1.611538E4,1.1811386E4,3.1006357E3,2.705087E3,9.924927E3,2.3853535E3,4.9848438E2,0E0,0E0,0E0,0E0,0E0,0E0,0E0,0E0],"parents":[2147483647,0,0,1,1,2,2,3,3,4,4,5,5,6,6],"right_children":[2,4,6,8,10,12,14,-1,-1,-1,-1,-1,-1,-1,-1],"split_conditions":[3.3610526E2,5.329012E0,8.362537E0,-8.706768E-1,5.2579966E0,-3.2203436E0,2.5227695E0,-1.7257553E0,-7.3305655E-1,-2.6191914E-1,5.705241E-1,-4.127811E-1,8.2408077E-1,1.2725364E0,2.3878691E0],"split_indices":[0,2,2,3,3,3,3,0,0,0,0,0,0,0,0],"split_type":[0,0,0,0,0,0,0,0,0,0,0,0,0,0,0],"sum_hessian":[1E3,8.23E2,1.77E2,1.49E2,6.74E2,1.52E2,2.5E1,3.7E1,1.12E2,4.69E2,2.05E2,1.7E1,1.35E2,1.3E1,1.2E1],"tree_param":{"num_deleted":"0","num_feature":"6","num_nodes":"15","size_leaf_vector":"1"}},{"base_weights":[-2.4455676E-3,-5.420167E0,2.5512857E0,-8.379527E0,-7.7370065E-1,9.73696E-1,1.0912259E1,-1.1796125E0,-5.711755E-1,-3.1548792E-1,5.266881E-1,-4.3949924E-2,9.458227E-1,7.216319E-1,1.6331326E0],"categories":[],"categories_nodes":[],"categories_segments":[],"categories_sizes":[],"default_left":[0,0,0,0,0,0,0,0,0,0,0,0,0,0,0],"id":19,"left_children":[1,3,5,7,9,11,13,-1,-1,-1,-1,-1,-1,-1,-1],"loss_changes":[1.3863068E4,4.407448E3,8.971892E3,1.7191055E3,1.828963E3,6.8865884E3,2.0452305E3,0E0,0E0,0E0,0E0,0E0,0E0,0E0,0E0],"parents":[2147483647,0,0,1,1,2,2,3,3,4,4,5,5,6,6],"right_children":[2,4,6,8,10,12,14,-1,-1,-1,-1,-1,-1,-1,-1],"split_conditions":[1.5548225E2,7.339148E0,8.342829E0,9.271338E1,5.610955E0,7.5605063E0,3.8926027E0,-1.1796125E0,-5.711755E-1,-3.1548792E-1,5.266881E-1,-4.3949924E-2,9.458227E-1,7.216319E-1,1.6331326E0],"split_indices":[0,2,2,0,3,3,3,0,0,0,0,0,0,0,0],"split_type":[0,0,0,0,0,0,0,0,0,0,0,0,0,0,0],"sum_hessian":[1E3,3.2E2,6.8E2,1.95E2,1.25E2,5.73E2,1.07E2,8.4E1,1.11E2,9E1,3.5E1,4.92E2,8.1E1,6.5E1,4.2E1],"tree_param":{"num_deleted":"0","num_feature":"6","num_nodes":"15","size_leaf_vector":"1"}},{"base_weights":[-4.8649777E-4,-1.96977E0,6.391342E0,-4.2928824E0,2.7299407E0,4.0130186E-1,8.570367E0,-8.1568396E-1,-1.4326273E-1,-3.8682994E-1,5.261164E-1,-2.1042787E-1,6.018793E-1,6.635337E-1,1.6286068E0],"categories":[],"categories_nodes":[],"categories_segments":[],"categories_sizes":[],"default_left":[0,0,0,0,0,0,0,0,0,0,0,0,0,0,0],"id":20,"left_children":[1,3,5,7,9,11,13,-1,-1,-1,-1,-1,-1,-1,-1],"loss_changes":[1.26125E4,8.374873E3,3.0769365E3,5.6579414E3,4.2625635E3,9.1347003E2,2.4748477E3,0E0,0E0,0E0,0E0,0E0,0E0,0E0,0E0],"parents":[2147483647,0,0,1,1,2,2,3,3,4,4,5,5,6,6],"right_children":[2,4,6,8,10,12,14,-1,-1,-1,-1,-1,-1,-1,-1],"split_conditions":[3.1607974E2,7.54894E0,5.7161145E0,1.3500272E0,-1.4869494E0,3.728748E2,7.0147104E0,-8.1568396E-1,-1.4326273E-1,-3.8682994E-1,5.261164E-1,-2.1042787E-1,6.018793E-1,6.635337E-1,1.6286068E0],"split_indices":[0,2,2,3,3,0,3,0,0,0,0,0,0,0,0],"split_type":[0,0,0,0,0,0,0,0,0,0,0,0,0,0,0],"sum_hessian":[1E3,7.65E2,2.35E2,5.12E2,2.53E2,6.3E1,1.72E2,2.17E2,2.95E2,7E1,1.83E2,4.4E1,1.9E1,1.39E2,3.3E1],"tree_param":{"num_deleted":"0","num_feature":"6","num_nodes":"15","size_leaf_vector":"1"}},{"base_weights":[1.4254239E-3,-6.708508E0,1.6331197E0,-1.1353278E1,-4.6740885E0,-5.7824626E0,3.015687E0,-1.1938075E0,3.5423025E-1,-1.0750732E0,-2.661898E-1,-1.2412513E0,-3.6039677E-1,1.4027654E-1,8.2919735E-1],"categories":[],"categories_nodes":[],"categories_segments":[],"categories_sizes":[],"default_left":[0,0,0,0,0,0,0,0,0,0,0,0,0,0,0],"id":21,"left_children":[1,3,5,7,9,11,13,-1,-1,-1,-1,-1,-1,-1,-1],"loss_changes":[1.0970464E4,1.7990186E3,8.280988E3,5.5623096E2,1.6587585E3,1.7895942E3,5.7753296E3,0E0,0E0,0E0,0E0,0E0,0E0,0E0,0E0],"parents":[2147483647,0,0,1,1,2,2,3,3,4,4,5,5,6,6],"right_children":[2,4,6,8,10,12,14,-1,-1,-1,-1,-1,-1,-1,-1],"split_conditions":[1.10680756E2,-1.0175539E0,5.1806107E0,8.624859E0,5.5457296E0,-6.88075E-1,6.287025E0,-1.1938075E0,3.5423025E-1,-1.0750732E0,-2.661898E-1,-1.2412513E0,-3.6039677E-1,1.4027654E-1,8.2919735E-1],"split_indices":[0,3,2,2,2,3,3,0,0,0,0,0,0,0,0],"split_type":[0,0,0,0,0,0,0,0,0,0,0,0,0,0,0],"sum_hessian":[1E3,1.95E2,8.05E2,5.8E1,1.37E2,1.26E2,6.79E2,5.6E1,2E0,3.3E1,1.04E2,3E1,9.6E1,5.21E2,1.58E2],"tree_param":{"num_deleted":"0","num_feature":"6","num_nodes":"15","size_leaf_vector":"1"}},{"base_weights":[-1.525574E-3,-2.0150669E0,4.824153E0,-4.203372E0,2.0773373E0,1.9216406E0,8.648565E0,-5.648722E-1,1.8174443E-1,1.19341515E-1,1.3966082E0,-5.0822157E-1,3.0597976E-1,5.599589E-1,1.241424E0],"categories":[],"categories_nodes":[],"categories_segments":[],"categories_sizes":[],"default_left":[0,0,0,0,0,0,0,0,0,0,0,0,0,0,0],"id":22,"left_children":[1,3,5,7,9,11,13,-1,-1,-1,-1,-1,-1,-1,-1],"loss_changes":[9.736141E3,6.3402197E3,3.257999E3,4.0219731E3,2.5789873E3,1.3627318E3,1.3886299E3,0E0,0E0,0E0,0E0,0E0,0E0,0E0,0E0],"parents":[2147483647,0,0,1,1,2,2,3,3,4,4,5,5,6,6],"right_children":[2,4,6,8,10,12,14,-1,-1,-1,-1,-1,-1,-1,-1],"split_conditions":[2.9359097E2,4.8276057E0,7.1710243E0,8.199464E0,8.755642E0,-3.2203436E0,2.5227695E0,-5.648722E-1,1.8174443E-1,1.19341515E-1,1.3966082E0,-5.0822157E-1,3.0597976E-1,5.599589E-1,1.241424E0],"split_indices":[0,3,2,2,2,3,3,0,0,0,0,0,0,0,0],"split_type":[0,0,0,0,0,0,0,0,0,0,0,0,0,0,0],"sum_hessian":[1E3,7.06E2,2.94E2,4.6E2,2.46E2,1.68E2,1.26E2,3.71E2,8.9E1,2.3E2,1.6E1,2.3E1,1.45E2,7.1E1,5.5E1],"tree_param":{"num_deleted":"0","num_feature":"6","num_nodes":"15","size_leaf_vector":"1"}},{"base_weights":[1.3537488E-3,-6.866238E0,1.2104353E0,-9.346858E0,-3.7374485E0,-4.525313E0,2.5636475E0,-9.9581045E-1,5.2147716E-1,-1.0120909E0,-2.0446144E-1,-1.6248518E0,-3.3147535E-1,1.0845828E-1,7.456271E-1],"categories":[],"categories_nodes":[],"categories_segments":[],"categories_sizes":[],"default_left":[0,0,0,0,0,0,0,0,0,0,0,0,0,0,0],"id":23,"left_children":[1,3,5,7,9,11,13,-1,-1,-1,-1,-1,-1,-1,-1],"loss_changes":[8.320093E3,1.1292666E3,6.6245576E3,7.906904E2,7.141241E2,2.2593777E3,4.985102E3,0E0,0E0,0E0,0E0,0E0,0E0,0E0,0E0],"parents":[2147483647,0,0,1,1,2,2,3,3,4,4,5,5,6,6],"right_children":[2,4,6,8,10,12,14,-1,-1,-1,-1,-1,-1,-1,-1],"split_conditions":[9.788652E1,3.3005679E0,5.3964686E0,8.624859E0,5.329012E0,-3.4963164E0,6.287025E0,-9.9581045E-1,5.2147716E-1,-1.0120909E0,-2.0446144E-1,-1.6248518E0,-3.3147535E-1,1.0845828E-1,7.456271E-1],"split_indices":[0,3,2,2,2,3,3,0,0,0,0,0,0,0,0],"split_type":[0,0,0,0,0,0,0,0,0,0,0,0,0,0,0],"sum_hessian":[1E3,1.49E2,8.51E2,8.2E1,6.7E1,1.62E2,6.89E2,7.9E1,3E0,1.3E1,5.4E1,1.4E1,1.48E2,5.3E2,1.59E2],"tree_param":{"num_deleted":"0","num_feature":"6","num_nodes":"15","size_leaf_vector":"1"}},{"base_weights":[-1.571198E-3,-1.3060725E0,6.037253E0,-6.839868E0,-7.440529E-2,4.73174E0,1.348749E1,-1.5851614E0,-5.7211435E-1,-1.6588698E-1,3.540996E-1,-3.8400388E-1,5.8314484E-1,4.4957972E-1,1.5960208E0],"categories":[],"categories_nodes":[],"categories_segments":[],"categories_sizes":[],"default_left":[0,0,0,0,0,0,0,0,0,0,0,0,0,0,0],"id":24,"left_children":[1,3,5,7,9,11,13,-1,-1,-1,-1,-1,-1,-1,-1],"loss_changes":[7.8934165E3,5.615706E3,1.6674761E3,1.4215596E3,3.8725947E3,1.4646404E3,5.0632812E2,0E0,0E0,0E0,0E0,0E0,0E0,0E0,0E0],"parents":[2147483647,0,0,1,1,2,2,3,3,4,4,5,5,6,6],"right_children":[2,4,6,8,10,12,14,-1,-1,-1,-1,-1,-1,-1,-1],"split_conditions":[3.3610526E2,5.329012E0,8.362537E0,-3.4963164E0,5.2579966E0,-3.2203436E0,2.4726368E1,-1.5851614E0,-5.7211435E-1,-1.6588698E-1,3.540996E-1,-3.8400388E-1,5.8314484E-1,4.4957972E-1,1.5960208E0],"split_indices":[0,2,2,3,3,3,4,0,0,0,0,0,0,0,0],"split_type":[0,0,0,0,0,0,0,0,0,0,0,0,0,0,0],"sum_hessian":[1E3,8.23E2,1.77E2,1.49E2,6.74E2,1.52E2,2.5E1,1.5E1,1.34E2,4.69E2,2.05E2,1.7E1,1.35E2,6E0,1.9E1],"tree_param":{"num_deleted":"0","num_feature":"6","num_nodes":"15","size_leaf_vector":"1"}},{"base_weights":[-1.1348057E-3,-2.2054765E0,3.1040225E0,-3.0070724E0,7.4983096E0,-4.7698766E-1,5.021821E0,-7.626174E-1,-1.9318901E-1,8.1970215E-1,-5.0159967E-1,-1.0082203E0,6.1812766E-2,3.2991108E-1,9.47985E-1],"categories":[],"categories_nodes":[],"categories_segments":[],"categories_sizes":[],"default_left":[0,0,0,0,0,0,0,0,0,0,0,0,0,0,0],"id":25,"left_children":[1,3,5,7,9,11,13,-1,-1,-1,-1,-1,-1,-1,-1],"loss_changes":[6.8585186E3,4.5807573E3,2.8593398E3,2.677044E3,4.3459155E2,1.5419796E3,2.049976E3,0E0,0E0,0E0,0E0,0E0,0E0,0E0,0E0],"parents":[2147483647,0,0,1,1,2,2,3,3,4,4,5,5,6,6],"right_children":[2,4,6,8,10,12,14,-1,-1,-1,-1,-1,-1,-1,-1],"split_conditions":[2.5191637E2,8.667873E0,-5.4063815E-1,5.195069E0,9.5630665E0,4.974632E0,7.7330427E0,-7.626174E-1,-1.9318901E-1,8.1970215E-1,-5.0159967E-1,-1.0082203E0,6.1812766E-2,3.2991108E-1,9.47985E-1],"split_indices":[0,2,3,2,1,2,2,0,0,0,0,0,0,0,0],"split_type":[0,0,0,0,0,0,0,0,0,0,0,0,0,0,0],"sum_hessian":[1E3,5.85E2,4.15E2,5.41E2,4.4E1,1.45E2,2.7E2,1.01E2,4.4E2,4.2E1,2E0,1.4E1,1.31E2,1.96E2,7.4E1],"tree_param":{"num_deleted":"0","num_feature":"6","num_nodes":"15","size_leaf_vector":"1"}},{"base_weights":[-1.3261274E-3,-6.119515E0,9.758861E-1,-7.4050765E0,9.954952E-1,-2.2350317E-2,6.933284E0,-1.0884938E0,-5.158517E-1,-2.3879509E-1,4.596028E-1,-1.1783322E-1,4.862238E-1,4.5203957E-1,1.1217617E0],"categories":[],"categories_nodes":[],"categories_segments":[],"categories_sizes":[],"default_left":[0,0,0,0,0,0,0,0,0,0,0,0,0,0,0],"id":26,"left_children":[1,3,5,7,9,11,13,-1,-1,-1,-1,-1,-1,-1,-1],"loss_changes":[5.9907197E3,1.2696279E3,5.1382695E3,8.5852295E2,2.7898364E2,4.189782E3,1.2311558E3,0E0,0E0,0E0,0E0,0E0,0E0,0E0,0E0],"parents":[2147483647,0,0,1,1,2,2,3,3,4,4,5,5,6,6],"right_children":[2,4,6,8,10,12,14,-1,-1,-1,-1,-1,-1,-1,-1],"split_conditions":[9.271338E1,9.172087E0,8.362537E0,7.148691E-1,3.219481E1,7.0147104E0,4.292893E0,-1.0884938E0,-5.158517E-1,-2.3879509E-1,4.596028E-1,-1.1783322E-1,4.862238E-1,4.5203957E-1,1.1217617E0],"split_indices":[0,1,2,3,4,3,3,0,0,0,0,0,0,0,0],"split_type":[0,0,0,0,0,0,0,0,0,0,0,0,0,0,0],"sum_hessian":[1E3,1.37E2,8.63E2,1.16E2,2.1E1,7.4E2,1.23E2,4.4E1,7.2E1,1.1E1,1E1,5.99E2,1.41E2,8E1,4.3E1],"tree_param":{"num_deleted":"0","num_feature":"6","num_nodes":"15","size_leaf_vector":"1"}},{"base_weights":[-6.377442E-4,-1.0225354E0,5.4581113E0,-2.0967207E0,3.7283368E0,1.8756592E0,7.5741615E0,-4.6191296E-1,-1.1639322E-2,-5.260026E-1,4.5138952E-1,-3.7944566E-2,6.08178E-1,1.3434805E-1,8.8495046E-1],"categories":[],"categories_nodes":[],"categories_segments":[],"categories_sizes":[],"default_left":[0,0,0,0,0,0,0,0,0,0,0,0,0,0,0],"id":27,"left_children":[1,3,5,7,9,11,13,-1,-1,-1,-1,-1,-1,-1,-1],"loss_changes":[5.589442E3,4.3150156E3,1.1835366E3,3.4411523E3,1.125241E3,5.7142224E2,7.7478955E2,0E0,0E0,0E0,0E0,0E0,0E0,0E0,0E0],"parents":[2147483647,0,0,1,1,2,2,3,3,4,4,5,5,6,6],"right_children":[2,4,6,8,10,12,14,-1,-1,-1,-1,-1,-1,-1,-1],"split_conditions":[3.4570636E2,8.199464E0,6.024873E0,1.3500272E0,6.970615E1,3.1757263E1,-2.5898063E0,-4.6191296E-1,-1.1639322E-2,-5.260026E-1,4.5138952E-1,-3.7944566E-2,6.08178E-1,1.3434805E-1,8.8495046E-1],"split_indices":[0,2,2,3,0,4,3,0,0,0,0,0,0,0,0],"split_type":[0,0,0,0,0,0,0,0,0,0,0,0,0,0,0],"sum_hessian":[1E3,8.43E2,1.57E2,6.88E2,1.55E2,5.9E1,9.8E1,3.02E2,3.86E2,1.2E1,1.43E2,3.9E1,2E1,1.7E1,8.1E1],"tree_param":{"num_deleted":"0","num_feature":"6","num_nodes":"15","size_leaf_vector":"1"}},{"base_weights":[4.6847988E-4,-2.9720592E0,1.6102059E0,-9.019967E0,-2.1457436E0,-3.3816667E0,2.622213E0,-1.0334786E0,-2.1401349E-1,-6.337914E-1,-8.791519E-2,-4.3326756E-1,4.7459617E-1,-2.3668015E-2,4.286413E-1],"categories":[],"categories_nodes":[],"categories_segments":[],"categories_sizes":[],"default_left":[0,0,0,0,0,0,0,0,0,0,0,0,0,0,0],"id":28,"left_children":[1,3,5,7,9,11,13,-1,-1,-1,-1,-1,-1,-1,-1],"loss_changes":[4.79456E3,1.7397585E3,3.292544E3,3.5780322E2,1.6457657E3,8.7080176E2,2.5749683E3,0E0,0E0,0E0,0E0,0E0,0E0,0E0,0E0],"parents":[2147483647,0,0,1,1,2,2,3,3,4,4,5,5,6,6],"right_children":[2,4,6,8,10,12,14,-1,-1,-1,-1,-1,-1,-1,-1],"split_conditions":[1.6816531E2,4.974632E0,-2.4245913E0,7.6730704E0,7.655216E1,3.728748E2,6.1692348E0,-1.0334786E0,-2.1401349E-1,-6.337914E-1,-8.791519E-2,-4.3326756E-1,4.7459617E-1,-2.3668015E-2,4.286413E-1],"split_indices":[0,2,3,3,0,0,2,0,0,0,0,0,0,0,0],"split_type":[0,0,0,0,0,0,0,0,0,0,0,0,0,0,0],"sum_hessian":[1E3,3.51E2,6.49E2,4.1E1,3.1E2,1.09E2,5.4E2,3.4E1,7E0,7.1E1,2.39E2,9.8E1,1.1E1,1.99E2,3.41E2],"tree_param":{"num_deleted":"0","num_feature":"6","num_nodes":"15","size_leaf_vector":"1"}},{"base_weights":[-1.0965292E-3,-8.871937E-1,4.7322392E0,-2.2172525E0,2.1423867E0,3.7733693E0,1.0488284E1,-3.1082642E-1,2.4888864E-1,-4.4758496E-1,3.2011944E-1,1.6254966E-1,5.8665556E-1,4.144287E-1,1.317253E0],"categories":[],"categories_nodes":[],"categories_segments":[],"categories_sizes":[],"default_left":[0,0,0,0,0,0,0,0,0,0,0,0,0,0,0],"id":29,"left_children":[1,3,5,7,9,11,13,-1,-1,-1,-1,-1,-1,-1,-1],"loss_changes":[4.202588E3,3.4056653E3,8.3247314E2,2.4691592E3,1.8222474E3,6.064016E2,3.200442E2,0E0,0E0,0E0,0E0,0E0,0E0,0E0,0E0],"parents":[2147483647,0,0,1,1,2,2,3,3,4,4,5,5,6,6],"right_children":[2,4,6,8,10,12,14,-1,-1,-1,-1,-1,-1,-1,-1],"split_conditions":[3.4570636E2,7.681394E0,7.5773773E0,7.5185766E0,-2.6946344E0,3.728748E2,6.5220737E0,-3.1082642E-1,2.4888864E-1,-4.4758496E-1,3.2011944E-1,1.6254966E-1,5.8665556E-1,4.144287E-1,1.317253E0],"split_indices":[0,2,3,3,3,0,2,0,0,0,0,0,0,0,0],"split_type":[0,0,0,0,0,0,0,0,0,0,0,0,0,0,0],"sum_hessian":[1E3,8.43E2,1.57E2,5.86E2,2.57E2,1.36E2,2.1E1,4.93E2,9.3E1,3.5E1,2.22E2,6.8E1,6.8E1,7E0,1.4E1],"tree_param":{"num_deleted":"0","num_feature":"6","num_nodes":"15","size_leaf_vector":"1"}},{"base_weights":[1.3010518E-3,-1.637162E0,2.3093252E0,-2.2195091E0,5.413266E0,-2.5635269E0,3.0901499E0,-5.9006006E-1,-1.3630673E-1,6.2843776E-1,-5.0867236E-1,-9.3155825E-1,-1.4541157E-1,-3.6532432E-1,3.6716253E-1],"categories":[],"categories_nodes":[],"categories_segments":[],"categories_sizes":[],"default_left":[0,0,0,0,0,0,0,0,0,0,0,0,0,0,0],"id":30,"left_children":[1,3,5,7,9,11,13,-1,-1,-1,-1,-1,-1,-1,-1],"loss_changes":[3.7891748E3,2.418011E3,1.5907363E3,1.7006882E3,4.4356677E2,4.2092078E2,1.4210938E3,0E0,0E0,0E0,0E0,0E0,0E0,0E0,0E0],"parents":[2147483647,0,0,1,1,2,2,3,3,4,4,5,5,6,6],"right_children":[2,4,6,8,10,12,14,-1,-1,-1,-1,-1,-1,-1,-1],"split_conditions":[2.5191637E2,8.667873E0,-3.2203436E0,5.195069E0,3.8179897E1,5.329012E0,4.8280582E0,-5.9006006E-1,-1.3630673E-1,6.2843776E-1,-5.0867236E-1,-9.3155825E-1,-1.4541157E-1,-3.6532432E-1,3.6716253E-1],"split_indices":[0,2,3,2,4,2,2,0,0,0,0,0,0,0,0],"split_type":[0,0,0,0,0,0,0,0,0,0,0,0,0,0,0],"sum_hessian":[1E3,5.85E2,4.15E2,5.41E2,4.4E1,5.7E1,3.58E2,1.01E2,4.4E2,4.1E1,3E0,7E0,5E1,2.8E1,3.3E2],"tree_param":{"num_deleted":"0","num_feature":"6","num_nodes":"15","size_leaf_vector":"1"}},{"base_weights":[-5.0704606E-4,-4.8163915E0,7.17458E-1,-5.914953E0,1.1673293E0,-1.5340548E-3,5.2670593E0,-9.54456E-1,-3.7045413E-1,-1.974289E-1,3.6880672E-1,-7.354015E-2,4.5414695E-1,4.7441623E-1,1.6240286E0],"categories":[],"categories_nodes":[],"categories_segments":[],"categories_sizes":[],"default_left":[0,0,0,0,0,0,0,0,0,0,0,0,0,0,0],"id":31,"left_children":[1,3,5,7,9,11,13,-1,-1,-1,-1,-1,-1,-1,-1],"loss_changes":[3.46455E3,8.614575E2,2.852431E3,8.471636E2,1.7358441E2,2.5171477E3,6.0576025E2,0E0,0E0,0E0,0E0,0E0,0E0,0E0,0E0],"parents":[2147483647,0,0,1,1,2,2,3,3,4,4,5,5,6,6],"right_children":[2,4,6,8,10,12,14,-1,-1,-1,-1,-1,-1,-1,-1],"split_conditions":[9.1134186E1,9.172087E0,7.5773773E0,7.148691E-1,2E0,8.400467E0,3.81537E2,-9.54456E-1,-3.7045413E-1,-1.974289E-1,3.6880672E-1,-7.354015E-2,4.5414695E-1,4.7441623E-1,1.6240286E0],"split_indices":[0,1,3,3,5,2,0,0,0,0,0,0,0,0,0],"split_type":[0,0,0,0,0,0,0,0,0,0,0,0,0,0,0],"sum_hessian":[1E3,1.29E2,8.71E2,1.09E2,2E1,7.53E2,1.18E2,4E1,6.9E1,9E0,1.1E1,6.49E2,1.04E2,1.14E2,4E0],"tree_param":{"num_deleted":"0","num_feature":"6","num_nodes":"15","size_leaf_vector":"1"}},{"base_weights":[8.7302836E-4,-5.820319E-1,5.0340247E0,-5.606105E0,-8.553941E-3,1.1328691E0,6.912688E0,-9.4329625E-1,-4.0373823E-1,-1.8418185E-1,1.4137559E-1,5.318235E-1,-1.2820275E-1,4.1957122E-1,1.0395465E0],"categories":[],"categories_nodes":[],"categories_segments":[],"categories_sizes":[],"default_left":[0,0,0,0,0,0,0,0,0,0,0,0,0,0,0],"id":32,"left_children":[1,3,5,7,9,11,13,-1,-1,-1,-1,-1,-1,-1,-1],"loss_changes":[2.939713E3,2.5872654E3,7.543801E2,5.1421704E2,2.1068323E3,3.60571E2,6.1876685E2,0E0,0E0,0E0,0E0,0E0,0E0,0E0,0E0],"parents":[2147483647,0,0,1,1,2,2,3,3,4,4,5,5,6,6],"right_children":[2,4,6,8,10,12,14,-1,-1,-1,-1,-1,-1,-1,-1],"split_conditions":[3.64319E2,4.891917E0,2.5212542E1,-8.706768E-1,1.3500272E0,6.9012737E0,7.1578703E0,-9.4329625E-1,-4.0373823E-1,-1.8418185E-1,1.4137559E-1,5.318235E-1,-1.2820275E-1,4.1957122E-1,1.0395465E0],"split_indices":[0,2,4,3,3,1,2,0,0,0,0,0,0,0,0],"split_type":[0,0,0,0,0,0,0,0,0,0,0,0,0,0,0],"sum_hessian":[1E3,8.97E2,1.03E2,9.1E1,8.06E2,3.4E1,6.9E1,2.5E1,6.6E1,3.52E2,4.54E2,1.2E1,2.2E1,4E1,2.9E1],"tree_param":{"num_deleted":"0","num_feature":"6","num_nodes":"15","size_leaf_vector":"1"}},{"base_weights":[1.2611443E-3,-3.404075E0,8.293562E-1,-1.0019865E1,-2.8004467E0,-1.3929033E0,1.9828671E0,-1.1028466E0,2.554573E-1,-4.5484018E-1,-3.805023E-2,-1.9720313E-1,3.6076698E-1,-1.6519406E-1,2.7185002E-1],"categories":[],"categories_nodes":[],"categories_segments":[],"categories_sizes":[],"default_left":[0,0,0,0,0,0,0,0,0,0,0,0,0,0,0],"id":33,"left_children":[1,3,5,7,9,11,13,-1,-1,-1,-1,-1,-1,-1,-1],"loss_changes":[2.825585E3,7.546616E2,2.0688628E3,2.3109436E2,7.63891E2,8.064025E2,1.4243237E3,0E0,0E0,0E0,0E0,0E0,0E0,0E0,0E0],"parents":[2147483647,0,0,1,1,2,2,3,3,4,4,5,5,6,6],"right_children":[2,4,6,8,10,12,14,-1,-1,-1,-1,-1,-1,-1,-1],"split_conditions":[1.10680756E2,-4.0615273E0,6.0564485E0,8.694313E0,7.2260065E0,3.728748E2,-2.5581353E0,-1.1028466E0,2.554573E-1,-4.5484018E-1,-3.805023E-2,-1.9720313E-1,3.6076698E-1,-1.6519406E-1,2.7185002E-1],"split_indices":[0,3,2,1,2,0,3,0,0,0,0,0,0,0,0],"split_type":[0,0,0,0,0,0,0,0,0,0,0,0,0,0,0],"sum_hessian":[1E3,1.95E2,8.05E2,1.5E1,1.8E2,2.75E2,5.3E2,1.4E1,1E0,1.04E2,7.6E1,2.47E2,2.8E1,8.9E1,4.41E2],"tree_param":{"num_deleted":"0","num_feature":"6","num_nodes":"15","size_leaf_vector":"1"}},{"base_weights":[6.5745415E-5,-1.2277248E0,1.9677196E0,-1.6842504E0,4.61265E0,-1.2981387E0,2.7231188E0,-2.4842636E-1,1.2326064E-1,5.637704E-1,-4.7153232E-1,-2.724024E-1,3.951829E-1,-6.1817247E-2,3.469493E-1],"categories":[],"categories_nodes":[],"categories_segments":[],"categories_sizes":[],"default_left":[0,0,0,0,0,0,0,0,0,0,0,0,0,0,0],"id":34,"left_children":[1,3,5,7,9,11,13,-1,-1,-1,-1,-1,-1,-1,-1],"loss_changes":[2.4206985E3,1.6528638E3,9.5334045E2,1.3401716E3,4.5685895E2,5.5723206E2,7.827207E2,0E0,0E0,0E0,0E0,0E0,0E0,0E0,0E0],"parents":[2147483647,0,0,1,1,2,2,3,3,4,4,5,5,6,6],"right_children":[2,4,6,8,10,12,14,-1,-1,-1,-1,-1,-1,-1,-1],"split_conditions":[2.6202118E2,8.737765E0,5.3964686E0,6.9436216E0,3.8179897E1,3.728748E2,-2.4245913E0,-2.4842636E-1,1.2326064E-1,5.637704E-1,-4.7153232E-1,-2.724024E-1,3.951829E-1,-6.1817247E-2,3.469493E-1],"split_indices":[0,2,2,3,4,0,3,0,0,0,0,0,0,0,0],"split_type":[0,0,0,0,0,0,0,0,0,0,0,0,0,0,0],"sum_hessian":[1E3,6.16E2,3.84E2,5.72E2,4.4E1,7.2E1,3.12E2,4.49E2,1.23E2,4E1,4E0,5.7E1,1.5E1,5.7E1,2.55E2],"tree_param":{"num_deleted":"0","num_feature":"6","num_nodes":"15","size_leaf_vector":"1"}},{"base_weights":[4.330996E-4,-5.0744524E0,4.3479443E-1,-6.006937E0,1.2360854E0,-5.090481E-1,2.626476E0,-6.785919E-1,7.810364E-2,-2.1076377E-1,5.670081E-1,-1.0946091E-1,2.8571305E-1,1.5515749E-1,5.6237805E-1],"categories":[],"categories_nodes":[],"categories_segments":[],"categories_sizes":[],"default_left":[0,0,0,0,0,0,0,0,0,0,0,0,0,0,0],"id":35,"left_children":[1,3,5,7,9,11,13,-1,-1,-1,-1,-1,-1,-1,-1],"loss_changes":[2.2087446E3,4.7229907E2,1.9106571E3,3.701516E2,1.7503705E2,1.2764597E3,8.869364E2,0E0,0E0,0E0,0E0,0E0,0E0,0E0,0E0],"parents":[2147483647,0,0,1,1,2,2,3,3,4,4,5,5,6,6],"right_children":[2,4,6,8,10,12,14,-1,-1,-1,-1,-1,-1,-1,-1],"split_conditions":[7.655216E1,9.10855E0,7.681394E0,3.7578094E1,2.6407068E1,7.5605063E0,5.721299E0,-6.785919E-1,7.810364E-2,-2.1076377E-1,5.670081E-1,-1.0946091E-1,2.8571305E-1,1.5515749E-1,5.6237805E-1],"split_indices":[0,1,2,4,4,3,3,0,0,0,0,0,0,0,0],"split_type":[0,0,0,0,0,0,0,0,0,0,0,0,0,0,0],"sum_hessian":[1E3,7.8E1,9.22E2,6.8E1,1E1,6.45E2,2.77E2,6.1E1,7E0,6E0,4E0,5.5E2,9.5E1,2.05E2,7.2E1],"tree_param":{"num_deleted":"0","num_feature":"6","num_nodes":"15","size_leaf_vector":"1"}},{"base_weights":[1.0435884E-3,-6.016102E-1,3.220276E0,-2.1042242E0,5.814215E-1,9.516467E-1,4.562675E0,-3.006315E-1,9.770274E-2,-8.774097E-2,2.1528736E-1,-7.895275E-2,4.2228523E-1,3.8117322E-1,1.0864893E0],"categories":[],"categories_nodes":[],"categories_segments":[],"categories_sizes":[],"default_left":[0,0,0,0,0,0,0,0,0,0,0,0,0,0,0],"id":36,"left_children":[1,3,5,7,9,11,13,-1,-1,-1,-1,-1,-1,-1,-1],"loss_changes":[1.9439601E3,1.5015515E3,4.7683215E2,1.0369366E3,1.0862336E3,3.450784E2,4.2711377E2,0E0,0E0,0E0,0E0,0E0,0E0,0E0,0E0],"parents":[2147483647,0,0,1,1,2,2,3,3,4,4,5,5,6,6],"right_children":[2,4,6,8,10,12,14,-1,-1,-1,-1,-1,-1,-1,-1],"split_conditions":[3.4570636E2,1.3500272E0,6.024873E0,8.018208E0,1.8935904E2,3.1757263E1,3.9383252E2,-3.006315E-1,9.770274E-2,-8.774097E-2,2.1528736E-1,-7.895275E-2,4.2228523E-1,3.8117322E-1,1.0864893E0],"split_indices":[0,3,2,2,0,4,0,0,0,0,0,0,0,0,0],"split_type":[0,0,0,0,0,0,0,0,0,0,0,0,0,0,0],"sum_hessian":[1E3,8.43E2,1.57E2,3.71E2,4.72E2,5.9E1,9.8E1,2.87E2,8.4E1,2.45E2,2.27E2,3.9E1,2E1,8.9E1,9E0],"tree_param":{"num_deleted":"0","num_feature":"6","num_nodes":"15","size_leaf_vector":"1"}},{"base_weights":[2.6714008E-3,-3.7679408E0,4.7240797E-1,-7.319056E0,-2.3003955E0,-4.218116E-1,2.4354336E0,-7.8903395E-1,8.3346054E-2,-8.408047E-1,-1.307759E-1,-2.5939283E-1,4.2440083E-2,1.8866567E-1,6.4691454E-1],"categories":[],"categories_nodes":[],"categories_segments":[],"categories_sizes":[],"default_left":[0,0,0,0,0,0,0,0,0,0,0,0,0,0,0],"id":37,"left_children":[1,3,5,7,9,11,13,-1,-1,-1,-1,-1,-1,-1,-1],"loss_changes":[1.7747456E3,5.616311E2,1.5650673E3,1.5561292E2,4.7401843E2,1.1278391E3,6.053917E2,0E0,0E0,0E0,0E0,0E0,0E0,0E0,0E0],"parents":[2147483647,0,0,1,1,2,2,3,3,4,4,5,5,6,6],"right_children":[2,4,6,8,10,12,14,-1,-1,-1,-1,-1,-1,-1,-1],"split_conditions":[4.974632E0,-8.706768E-1,2.8768582E2,9.271093E0,9.271338E1,-9.358595E-1,8.506162E0,-7.8903395E-1,8.3346054E-2,-8.408047E-1,-1.307759E-1,-2.5939283E-1,4.2440083E-2,1.8866567E-1,6.4691454E-1],"split_indices":[2,3,0,1,0,3,2,0,0,0,0,0,0,0,0],"split_type":[0,0,0,0,0,0,0,0,0,0,0,0,0,0,0],"sum_hessian":[1E3,1.1E2,8.9E2,3.1E1,7.9E1,6.12E2,2.78E2,2.9E1,2E0,1E1,6.9E1,1.71E2,4.41E2,2.46E2,3.2E1],"tree_param":{"num_deleted":"0","num_feature":"6","num_nodes":"15","size_leaf_vector":"1"}},{"base_weights":[1.352194E-3,-3.297881E0,4.932088E-1,-4.173718E0,1.4468783E0,-1.19362995E-2,3.6897314E0,-2.7746162E-1,-7.3542094E-1,-9.206035E-2,4.1431686E-1,-3.6856908E-1,4.5415483E-2,3.2732332E-1,1.2531245E0],"categories":[],"categories_nodes":[],"categories_segments":[],"categories_sizes":[],"default_left":[0,0,0,0,0,0,0,0,0,0,0,0,0,0,0],"id":38,"left_children":[1,3,5,7,9,11,13,-1,-1,-1,-1,-1,-1,-1,-1],"loss_changes":[1.6259989E3,5.462715E2,1.4080691E3,4.690763E2,1.37866E2,1.2927513E3,3.9719666E2,0E0,0E0,0E0,0E0,0E0,0E0,0E0,0E0],"parents":[2147483647,0,0,1,1,2,2,3,3,4,4,5,5,6,6],"right_children":[2,4,6,8,10,12,14,-1,-1,-1,-1,-1,-1,-1,-1],"split_conditions":[9.1134186E1,9.172087E0,7.5773773E0,7.519651E0,3.219481E1,4.974632E0,3.81537E2,-2.7746162E-1,-7.3542094E-1,-9.206035E-2,4.1431686E-1,-3.6856908E-1,4.5415483E-2,3.2732332E-1,1.2531245E0],"split_indices":[0,1,3,1,4,2,0,0,0,0,0,0,0,0,0],"split_type":[0,0,0,0,0,0,0,0,0,0,0,0,0,0,0],"sum_hessian":[1E3,1.29E2,8.71E2,1.09E2,2E1,7.53E2,1.18E2,7.7E1,3.2E1,1.1E1,9E0,8.4E1,6.69E2,1.14E2,4E0],"tree_param":{"num_deleted":"0","num_feature":"6","num_nodes":"15","size_leaf_vector":"1"}},{"base_weights":[1.788327E-3,-3.0358014E-1,5.064445E0,-1.2062817E0,1.1470494E0,3.039123E0,9.283802E0,-1.7042027E-1,1.4696252E-1,8.6044796E-2,7.7388406E-1,5.4539293E-2,6.056716E-1,4.2854005E-1,1.0876617E0],"categories":[],"categories_nodes":[],"categories_segments":[],"categories_sizes":[],"default_left":[0,0,0,0,0,0,0,0,0,0,0,0,0,0,0],"id":39,"left_children":[1,3,5,7,9,11,13,-1,-1,-1,-1,-1,-1,-1,-1],"loss_changes":[1.5490591E3,1.2388474E3,4.5888208E2,7.79288E2,6.7912695E2,2.9769925E2,9.66969E1,0E0,0E0,0E0,0E0,0E0,0E0,0E0,0E0],"parents":[2147483647,0,0,1,1,2,2,3,3,4,4,5,5,6,6],"right_children":[2,4,6,8,10,12,14,-1,-1,-1,-1,-1,-1,-1,-1],"split_conditions":[8.781434E0,2.6202118E2,5.2579966E0,7.5185766E0,9.201344E0,3.0819717E1,2.3224632E1,-1.7042027E-1,1.4696252E-1,8.6044796E-2,7.7388406E-1,5.4539293E-2,6.056716E-1,4.2854005E-1,1.0876617E0],"split_indices":[2,0,3,3,3,4,4,0,0,0,0,0,0,0,0],"split_type":[0,0,0,0,0,0,0,0,0,0,0,0,0,0,0],"sum_hessian":[1E3,9.44E2,5.6E1,5.82E2,3.62E2,3.9E1,1.7E1,4.91E2,9.1E1,3.48E2,1.4E1,2.2E1,1.7E1,5E0,1.2E1],"tree_param":{"num_deleted":"0","num_feature":"6","num_nodes":"15","size_leaf_vector":"1"}},{"base_weights":[4.6220412E-3,-3.9073792E0,3.3944705E-1,-1.8684502E0,-3.478384E0,-1.2795503E-1,3.116707E0,-2.894462E-1,-1.3557328E0,-2.9070026E-1,4.2300284E-2,1.5190989E-1,6.007669E-1],"categories":[],"categories_nodes":[],"categories_segments":[],"categories_sizes":[],"default_left":[0,0,0,0,0,0,0,0,0,0,0,0,0],"id":40,"left_children":[1,3,5,-1,7,9,11,-1,-1,-1,-1,-1,-1],"loss_changes":[1.312472E3,4.3581396E2,1.1985425E3,0E0,4.1981354E2,1.2123599E3,6.051509E2,0E0,0E0,0E0,0E0,0E0,0E0],"parents":[2147483647,0,0,1,1,2,2,4,4,5,5,6,6],"right_children":[2,4,6,-1,8,10,12,-1,-1,-1,-1,-1,-1],"split_conditions":[7.655216E1,4.0383153E0,8.362537E0,-1.8684502E0,7.591563E1,-2.5581353E0,4.292893E0,-2.894462E-1,-1.3557328E0,-2.9070026E-1,4.2300284E-2,1.5190989E-1,6.007669E-1],"split_indices":[0,1,2,0,0,3,3,0,0,0,0,0,0],"split_type":[0,0,0,0,0,0,0,0,0,0,0,0,0],"sum_hessian":[1E3,7.8E1,9.22E2,1E0,7.7E1,7.9E2,1.32E2,7.4E1,3E0,1.3E2,6.6E2,8.6E1,4.6E1],"tree_param":{"num_deleted":"0","num_feature":"6","num_nodes":"13","size_leaf_vector":"1"}},{"base_weights":[1.1539364E-3,-3.6921212E-1,3.1991112E0,-2.7761092E0,1.6034903E-1,-1.1956264E-1,4.8127465E0,-1.2113389E0,-2.3393333E-1,-2.6985079E-2,2.7813718E-1,2.2310065E-1,-3.8047737E-1,8.525406E-1,3.1571746E-1],"categories":[],"categories_nodes":[],"categories_segments":[],"categories_sizes":[],"default_left":[0,0,0,0,0,0,0,0,0,0,0,0,0,0,0],"id":41,"left_children":[1,3,5,7,9,11,13,-1,-1,-1,-1,-1,-1,-1,-1],"loss_changes":[1.1867803E3,1.1450353E3,5.575089E2,6.3234717E2,8.3176483E2,3.1167044E2,4.03344E2,0E0,0E0,0E0,0E0,0E0,0E0,0E0,0E0],"parents":[2147483647,0,0,1,1,2,2,3,3,4,4,5,5,6,6],"right_children":[2,4,6,8,10,12,14,-1,-1,-1,-1,-1,-1,-1,-1],"split_conditions":[3.64319E2,5.329012E0,2.5212542E1,-3.9911613E0,7.5773773E0,2.210608E1,2.9301573E1,-1.2113389E0,-2.3393333E-1,-2.6985079E-2,2.7813718E-1,2.2310065E-1,-3.8047737E-1,8.525406E-1,3.1571746E-1],"split_indices":[0,2,4,3,3,4,4,0,0,0,0,0,0,0,0],"split_type":[0,0,0,0,0,0,0,0,0,0,0,0,0,0,0],"sum_hessian":[1E3,8.97E2,1.03E2,1.61E2,7.36E2,3.4E1,6.9E1,6E0,1.55E2,6.33E2,1.03E2,2.1E1,1.3E1,2E1,4.9E1],"tree_param":{"num_deleted":"0","num_feature":"6","num_nodes":"15","size_leaf_vector":"1"}},{"base_weights":[8.5054414E-4,-2.5266218E-1,4.2038097E0,-2.796224E0,1.6011772E-1,2.5347571E0,7.6792703E0,-3.7198287E-1,1.9908822E-1,-2.1696992E-1,6.142314E-2,2.5294894E-2,5.309581E-1,9.3488675E-1,2.7819318E-1],"categories":[],"categories_nodes":[],"categories_segments":[],"categories_sizes":[],"default_left":[0,0,0,0,0,0,0,0,0,0,0,0,0,0,0],"id":42,"left_children":[1,3,5,7,9,11,13,-1,-1,-1,-1,-1,-1,-1,-1],"loss_changes":[1.0676312E3,9.926326E2,3.1117627E2,5.9102966E2,8.625462E2,2.519216E2,1.21170654E2,0E0,0E0,0E0,0E0,0E0,0E0,0E0,0E0],"parents":[2147483647,0,0,1,1,2,2,3,3,4,4,5,5,6,6],"right_children":[2,4,6,8,10,12,14,-1,-1,-1,-1,-1,-1,-1,-1],"split_conditions":[8.781434E0,9.271338E1,5.2579966E0,9.172087E0,-2.5581353E0,3.0819717E1,8.990658E0,-3.7198287E-1,1.9908822E-1,-2.1696992E-1,6.142314E-2,2.5294894E-2,5.309581E-1,9.3488675E-1,2.7819318E-1],"split_indices":[2,0,3,1,3,4,3,0,0,0,0,0,0,0,0],"split_type":[0,0,0,0,0,0,0,0,0,0,0,0,0,0,0],"sum_hessian":[1E3,9.44E2,5.6E1,1.31E2,8.13E2,3.9E1,1.7E1,1.1E2,2.1E1,1.32E2,6.81E2,2.2E1,1.7E1,1.2E1,5E0],"tree_param":{"num_deleted":"0","num_feature":"6","num_nodes":"15","size_leaf_vector":"1"}},{"base_weights":[2.2077379E-3,-2.7670183E0,3.47193E-1,-3.250133E0,4.8749933E0,-8.05272E-2,2.5665507E0,-3.7304088E-1,5.296153E-1,-2.0240326E-1,8.039411E-1,-3.5523108E-1,1.7860232E-2,5.038913E-1,1.2382913E-1],"categories":[],"categories_nodes":[],"categories_segments":[],"categories_sizes":[],"default_left":[0,0,0,0,0,0,0,0,0,0,0,0,0,0,0],"id":43,"left_children":[1,3,5,7,9,11,13,-1,-1,-1,-1,-1,-1,-1,-1],"loss_changes":[9.5725824E2,4.256529E2,8.460011E2,4.507373E2,1.690918E2,6.735663E2,4.6664752E2,0E0,0E0,0E0,0E0,0E0,0E0,0E0,0E0],"parents":[2147483647,0,0,1,1,2,2,3,3,4,4,5,5,6,6],"right_children":[2,4,6,8,10,12,14,-1,-1,-1,-1,-1,-1,-1,-1],"split_conditions":[4.974632E0,9.699767E0,3.4570636E2,3.728748E2,2.664868E1,-4.1340175E0,6.2065563E0,-3.7304088E-1,5.296153E-1,-2.0240326E-1,8.039411E-1,-3.5523108E-1,1.7860232E-2,5.038913E-1,1.2382913E-1],"split_indices":[2,1,0,0,4,3,1,0,0,0,0,0,0,0,0],"split_type":[0,0,0,0,0,0,0,0,0,0,0,0,0,0,0],"sum_hessian":[1E3,1.1E2,8.9E2,1.04E2,6E0,7.47E2,1.43E2,9.9E1,5E0,2E0,4E0,5.1E1,6.96E2,4.9E1,9.4E1],"tree_param":{"num_deleted":"0","num_feature":"6","num_nodes":"15","size_leaf_vector":"1"}},{"base_weights":[3.0396543E-3,-7.102061E-1,1.2694869E0,-8.440976E-1,8.785743E0,1.5498364E0,-4.1588287E0,-2.6809454E-1,-2.8299151E-2,-3.971672E-2,1.3443393E0,-1.22064725E-1,2.0473905E-1,-6.949907E-1,1.21999465E-1],"categories":[],"categories_nodes":[],"categories_segments":[],"categories_sizes":[],"default_left":[0,0,0,0,0,0,0,0,0,0,0,0,0,0,0],"id":44,"left_children":[1,3,5,7,9,11,13,-1,-1,-1,-1,-1,-1,-1,-1],"loss_changes":[9.05093E2,8.2240076E2,5.558244E2,6.516532E2,3.9027625E2,4.7669116E2,2.7870773E2,0E0,0E0,0E0,0E0,0E0,0E0,0E0,0E0],"parents":[2147483647,0,0,1,1,2,2,3,3,4,4,5,5,6,6],"right_children":[2,4,6,8,10,12,14,-1,-1,-1,-1,-1,-1,-1,-1],"split_conditions":[7.4293804E0,3.9510037E2,9.818926E0,1.286117E2,5.8288074E0,-2.5898063E0,2.6905096E2,-2.6809454E-1,-2.8299151E-2,-3.971672E-2,1.3443393E0,-1.22064725E-1,2.0473905E-1,-6.949907E-1,1.21999465E-1],"split_indices":[2,0,1,0,2,3,0,0,0,0,0,0,0,0,0],"split_type":[0,0,0,0,0,0,0,0,0,0,0,0,0,0,0],"sum_hessian":[1E3,6.4E2,3.6E2,6.32E2,8E0,3.43E2,1.7E1,1.47E2,4.85E2,3E0,5E0,5.2E1,2.91E2,1.1E1,6E0],"tree_param":{"num_deleted":"0","num_feature":"6","num_nodes":"15","size_leaf_vector":"1"}},{"base_weights":[3.2555945E-3,-3.1051702E0,2.6930368E-1,-1.7662095E0,-2.692106E0,-4.104366E-2,2.8238728E0,-2.153385E-1,-1.2120103E0,-4.892486E-2,1.7795251E-1,3.2527885E-1,-8.2832986E-1],"categories":[],"categories_nodes":[],"categories_segments":[],"categories_sizes":[],"default_left":[0,0,0,0,0,0,0,0,0,0,0,0,0],"id":45,"left_children":[1,3,5,-1,7,9,11,-1,-1,-1,-1,-1,-1],"loss_changes":[8.2865405E2,4.2747443E2,7.318738E2,0E0,3.700675E2,6.7324457E2,5.0334778E2,0E0,0E0,0E0,0E0,0E0,0E0],"parents":[2147483647,0,0,1,1,2,2,4,4,5,5,6,6],"right_children":[2,4,6,-1,8,10,12,-1,-1,-1,-1,-1,-1],"split_conditions":[7.655216E1,4.0383153E0,8.516512E0,-1.7662095E0,7.591563E1,7.0147104E0,9.902074E0,-2.153385E-1,-1.2120103E0,-4.892486E-2,1.7795251E-1,3.2527885E-1,-8.2832986E-1],"split_indices":[0,1,2,0,0,3,1,0,0,0,0,0,0],"split_type":[0,0,0,0,0,0,0,0,0,0,0,0,0],"sum_hessian":[1E3,7.8E1,9.22E2,1E0,7.7E1,8.23E2,9.9E1,7.4E1,3E0,6.61E2,1.62E2,9.6E1,3E0],"tree_param":{"num_deleted":"0","num_feature":"6","num_nodes":"13","size_leaf_vector":"1"}},{"base_weights":[-6.369211E-4,-1.7866026E0,3.9310294E-1,-6.974567E0,-1.1709099E0,2.4931757E-2,2.6082106E0,-3.5480043E-1,-1.3807453E0,-5.217322E-1,-5.0255258E-2,-6.023253E-2,1.4766352E-1,2.2540696E-1,1.0090154E0],"categories":[],"categories_nodes":[],"categories_segments":[],"categories_sizes":[],"default_left":[0,0,0,0,0,0,0,0,0,0,0,0,0,0,0],"id":46,"left_children":[1,3,5,7,9,11,13,-1,-1,-1,-1,-1,-1,-1,-1],"loss_changes":[7.046114E2,5.699821E2,6.694923E2,3.9586407E2,4.3820322E2,6.4285626E2,2.8726678E2,0E0,0E0,0E0,0E0,0E0,0E0,0E0,0E0],"parents":[2147483647,0,0,1,1,2,2,3,3,4,4,5,5,6,6],"right_children":[2,4,6,8,10,12,14,-1,-1,-1,-1,-1,-1,-1,-1],"split_conditions":[5.329012E0,-3.4963164E0,7.5773773E0,3E0,9.271338E1,2.9216333E2,3.81537E2,-3.5480043E-1,-1.3807453E0,-5.217322E-1,-5.0255258E-2,-6.023253E-2,1.4766352E-1,2.2540696E-1,1.0090154E0],"split_indices":[2,3,3,5,0,0,0,0,0,0,0,0,0,0,0],"split_type":[0,0,0,0,0,0,0,0,0,0,0,0,0,0,0],"sum_hessian":[1E3,1.8E2,8.2E2,1.8E1,1.62E2,7.04E2,1.16E2,1.3E1,5E0,2.2E1,1.4E2,4.92E2,2.12E2,1.12E2,4E0],"tree_param":{"num_deleted":"0","num_feature":"6","num_nodes":"15","size_leaf_vector":"1"}},{"base_weights":[-1.5591403E-3,-1.9830608E-1,3.2603254E0,-2.9469386E-1,6.2325296E0,1.1105279E0,5.297698E0,-3.1827858E-1,-9.232194E-3,-4.9814988E-2,8.113456E-1,-2.4005381E-2,6.327767E-1,-2.2491352E-1,5.940024E-1],"categories":[],"categories_nodes":[],"categories_segments":[],"categories_sizes":[],"default_left":[0,0,0,0,0,0,0,0,0,0,0,0,0,0,0],"id":47,"left_children":[1,3,5,7,9,11,13,-1,-1,-1,-1,-1,-1,-1,-1],"loss_changes":[6.430541E2,5.875986E2,2.4377325E2,5.4443097E2,1.8128052E2,2.0586191E2,1.5393823E2,0E0,0E0,0E0,0E0,0E0,0E0,0E0,0E0],"parents":[2147483647,0,0,1,1,2,2,3,3,4,4,5,5,6,6],"right_children":[2,4,6,8,10,12,14,-1,-1,-1,-1,-1,-1,-1,-1],"split_conditions":[8.781434E0,3.9510037E2,3.499079E0,-4.0615273E0,5.8288074E0,3.900045E1,7.808181E1,-3.1827858E-1,-9.232194E-3,-4.9814988E-2,8.113456E-1,-2.4005381E-2,6.327767E-1,-2.2491352E-1,5.940024E-1],"split_indices":[2,0,3,3,2,4,0,0,0,0,0,0,0,0,0],"split_type":[0,0,0,0,0,0,0,0,0,0,0,0,0,0,0],"sum_hessian":[1E3,9.44E2,5.6E1,9.31E2,1.3E1,2.8E1,2.8E1,6E1,8.71E2,3E0,1E1,2.3E1,5E0,2E0,2.6E1],"tree_param":{"num_deleted":"0","num_feature":"6","num_nodes":"15","size_leaf_vector":"1"}},{"base_weights":[7.515068E-6,-2.7026284E0,2.3132737E-1,-1.6744263E0,-2.3079374E0,-8.1780344E-1,8.304373E-1,-1.8112615E-1,-1.1043628E0,-3.134882E-2,-4.157498E-1,7.339044E-2,8.737826E-1],"categories":[],"categories_nodes":[],"categories_segments":[],"categories_sizes":[],"default_left":[0,0,0,0,0,0,0,0,0,0,0,0,0],"id":48,"left_children":[1,3,5,-1,7,9,11,-1,-1,-1,-1,-1,-1],"loss_changes":[6.2642377E2,3.9918164E2,5.808258E2,0E0,3.184241E2,5.646078E2,4.424214E2,0E0,0E0,0E0,0E0,0E0,0E0],"parents":[2147483647,0,0,1,1,2,2,4,4,5,5,6,6],"right_children":[2,4,6,-1,8,10,12,-1,-1,-1,-1,-1,-1],"split_conditions":[7.655216E1,4.0383153E0,6.159182E0,-1.6744263E0,7.591563E1,3.706131E1,3.9541043E2,-1.8112615E-1,-1.1043628E0,-3.134882E-2,-4.157498E-1,7.339044E-2,8.737826E-1],"split_indices":[0,1,2,0,0,4,0,0,0,0,0,0,0],"split_type":[0,0,0,0,0,0,0,0,0,0,0,0,0],"sum_hessian":[1E3,7.8E1,9.22E2,1E0,7.7E1,3.35E2,5.87E2,7.4E1,3E0,2.92E2,4.3E1,5.81E2,6E0],"tree_param":{"num_deleted":"0","num_feature":"6","num_nodes":"13","size_leaf_vector":"1"}},{"base_weights":[-2.4552627E-3,-2.586178E0,2.1868944E-1,-3.2661932E0,1.9144772E0,-2.501422E0,4.0397024E-1,-5.9880465E-1,-2.2612016E-1,-3.046673E-1,4.1557428E-1,-9.935735E-2,-8.324364E-1,-1.6912967E-2,1.3290593E-1],"categories":[],"categories_nodes":[],"categories_segments":[],"categories_sizes":[],"default_left":[0,0,0,0,0,0,0,0,0,0,0,0,0,0,0],"id":49,"left_children":[1,3,5,7,9,11,13,-1,-1,-1,-1,-1,-1,-1,-1],"loss_changes":[5.7251355E2,2.4803357E2,4.6618808E2,1.7520514E2,1.3497298E2,5.0975583E2,4.5882047E2,0E0,0E0,0E0,0E0,0E0,0E0,0E0,0E0],"parents":[2147483647,0,0,1,1,2,2,3,3,4,4,5,5,6,6],"right_children":[2,4,6,8,10,12,14,-1,-1,-1,-1,-1,-1,-1,-1],"split_conditions":[4.810534E0,3.2143466E2,-4.1340175E0,5.3429055E0,4.623915E0,-4.244757E0,2.6554755E2,-5.9880465E-1,-2.2612016E-1,-3.046673E-1,4.1557428E-1,-9.935735E-2,-8.324364E-1,-1.6912967E-2,1.3290593E-1],"split_indices":[2,0,3,1,2,3,0,0,0,0,0,0,0,0,0],"split_type":[0,0,0,0,0,0,0,0,0,0,0,0,0,0,0],"sum_hessian":[1E3,7.8E1,9.22E2,6.8E1,1E1,5.8E1,8.64E2,1.7E1,5.1E1,3E0,7E0,4.7E1,1.1E1,5.34E2,3.3E2],"tree_param":{"num_deleted":"0","num_feature":"6","num_nodes":"15","size_leaf_vector":"1"}}]},"name":"gbtree"},"learner_model_param":{"base_score":"2.1001826E2","boost_from_average":"1","num_class":"0","num_feature":"6","num_target":"1"},"objective":{"name":"reg:squarederror","reg_loss_param":{"scale_pos_weight":"1"}}},"version":[3,0,2]}